0.121539683912694
-0.0416874651618573
-0.236094648732385
-0.0146895239422705
-0.0694525994678947
-0.158334991419967
-0.0949972461965676
-0.210984321474364
-0.0754373346889984
-0.319044225240594
-0.0199469434565438
-0.0096755099297231
-0.0243504997483456
0.116167966259514
-0.0568982775382685
-0.174171772109089
-0.183143555910195
-0.095267803984111
-0.0270226410586132
-0.0675598272710219
-0.170278681348709
-0.215457867304616
-0.130393355319794
-0.295827504919366
-0.133312527639228
0.210616598808978
-0.14414611323095
-0.0520220940599572
-0.329451428894094
-0.422923884863612
-0.293157626039186
-0.287695464118385
-0.107941036797005
0.0199217844146871
0.0737315436011003
-0.156417637627854
-0.225859831981279
-0.135886634296754
0.186962025109343
-0.132203912746034
-0.13366637568667
-0.113343959526807
-0.151182903185902
-0.286994715226274
0.177400341915538
0.0637847544456098
0.392512470189929
0.303422769863757
0.304321230276124
-0.0554283180923298
-0.0120680838592003
0.0318562021552354
0.137433934418731
0.242153198134737
-0.0359576462186519
-0.0667106346509079
-0.296172433704734
0.148992938111624
0.242589858675006
-0.107883733859735
-0.0584166750976998
0.282884361106348
0.193435429628625
-0.157262787024677
0.290830831426857
0.0706058622968842
0.249802079177714
0.28896155687966
0.120862321381737
-0.0215068490796067
-0.0895071710738545
-0.270551283748331
-0.494175250795096
-0.453937509473368
0.158041138005049
0.201546365553666
0.23712304723032
-0.156725626809272
0.217810339279507
-0.0881386627299971
0.259084480944429
0.28418066222737
0.6678295956873
0.454533409389594
-0.377911953178089
0.159486490375435
-0.327000621722057
-0.0125073402193624
-0.0225127937391776
-0.0627114553061717
-0.270514589255414
0.242174144406634
0.18641428430366
-0.0367886315531059
0.433314100577453
0.108995316868363
-0.361799051037485
0.0893748539255875
-0.563780744090419
-0.106719738181446
0.0436072223531025
-0.0935492212214684
-0.314765044571821
-0.153518430511226
-0.109539794939344
0.493394126077055
0.204837044643381
-0.363468866245614
0.0294018371834702
-0.125395431749244
-0.285075188688623
0.172533489536005
-0.046634542694922
0.0955739663432542
-0.0336969522595466
0.267100913625665
0.363454827049185
0.0226793709578143
-0.219235702760753
-0.0693259640370047
-0.376717467841634
0.0670328252588845
0.331275131755896
0.122498813392867
0.23638386579202
0.124207651945729
-0.31748568094619
0.128081115392122
0.839813304011679
0.597353690378024
0.126491240045656
0.0178854463245741
0.00867581555742476
0.251432241699021
-0.276064731174623
-0.0886754396617932
-0.380270449204427
-0.788633517906831
-0.413180773375317
-0.00243636417854927
-0.508713878415955
-0.762399208884295
-0.194133141160949
-0.324294585880504
-0.628265665476926
-0.143334415887155
0.881372850595075
0.166848023983523
0.209810135482346
-0.228112396767781
0.0149992175008571
0.346425663823589
0.244015408687958
0.522905232209556
0.379295289271155
-0.0461887510197419
-0.814468389106207
0.521577158127995
0.487746204398819
0.171789908472328
0.809833259213806
1.28311902648267
-0.0560051810837547
-0.261508343691267
-0.0423013119011674
0.0236165144747413
0.116267684633158
0.245288309022198
-0.231458369554923
-0.201322563495638
-0.345090267068555
-0.385627003453636
-0.214269854116972
-0.0983668134878694
0.509386718766339
-0.259879663720416
-0.108394316648264
-0.0233549128264386
-0.128247157258046
-0.158166410643079
0.499862649362717
0.0244240383156114
-0.252377652791094
-0.57382493024362
0.129115142015339
0.0284658666639322
0.163700373369549
-0.404883466689786
0.622565129777542
