-0.00717393459715926
-0.187749079314148
-0.0931888791721888
-0.136840193817182
-0.0795834543075075
-0.0440520322680189
-0.212651641458198
-0.00400891494758827
-0.119613624419345
-0.0790067281351349
0.105465637601897
-0.0548589147958369
-0.223878780415647
0.0731625179311534
0.0541642987021624
0.0749985997083834
0.0976387225489496
0.326245484731073
0.16027351457576
-0.06178081356559
0.0732337221438874
0.0226220135229861
0.0864868507576025
0.0266419199735927
0.117082156900966
0.0863865933563143
0.0657958522187615
-0.0660001558991958
0.254809301566326
-0.17114689601995
0.194549136652983
0.0604603868228735
-0.135997967809811
0.133629399592977
0.129443550598004
-0.129048381456938
-0.50127631607084
0.0767833924647676
0.0857263757777764
0.0405317643522152
0.151097877879982
0.00786496153417944
0.165881119515409
0.369412259945941
0.192698614689557
-0.137372378916778
-0.119714463488909
-0.272903972087089
-0.159788727649148
-0.190032894977798
-0.124028341491004
0.0232317460437525
-0.266557206852174
-0.336473665993106
-0.105591620776187
0.0115020988884365
0.0123316837708099
-0.0778444400808175
-0.0255465868448587
0.0670366828351041
-0.0336122010071661
0.149033450296181
-0.0760634181957048
-0.0559652593825985
0.362953817554826
-0.117109448769382
0.0593550115122477
-0.199813896422113
-0.0450806671265111
-0.19528048651183
0.212114743418955
0.148555190819853
0.452292099537309
0.513993035531191
-0.0466514216510686
-0.432796711876502
0.00546506032957357
-0.330607358022759
-0.124779753404694
-0.323723677217386
-0.116681257963287
-0.217024354547622
-0.421803915665003
-0.882425372854456
-0.605066937809372
0.00718027920433647
-0.0754737691590514
-0.120410920456984
0.268937737212197
0.329156406210909
0.120735656282128
0.0422202372177596
-0.165029545497813
-0.402277448888364
-0.491586861538974
-0.212531009851534
-0.120893531301085
-0.321241671421899
-0.480238138872618
-0.0359509784678385
0.201213389695811
-0.150811928657993
0.261829615216008
0.179709792658538
-0.467796036305292
-0.375338009644444
-0.528543533244834
-0.181941429731491
-0.0428118246955016
-0.0276110889673323
0.0158746045018202
-0.357133243001895
-0.127790234837513
0.11000693111563
-0.358837762649771
-0.0865859023202854
-0.150403655769886
-0.352213551024121
-0.296661573371296
0.0070322456997694
0.0538081739883475
0.111279502316857
-0.0460240150122076
-0.365609824345236
-0.74202760157091
-0.141565456530198
-0.274657829072881
-0.112895637308932
0.382761917121822
-0.604138738153317
-0.576592095877925
-0.336077244090206
0.0253423184080218
0.0772096907294937
-0.253164724392857
0.0348561861919486
0.42225175399956
-0.503104913710511
-0.654536520030603
-0.200539726204766
0.111632981678543
0.734292232116773
0.0739076955867174
0.11044662652295
-0.0323371649191006
0.0991217778635458
0.572436841917346
-0.18914224072537
-0.195818444744496
-0.203108017290719
0.0600981011761743
0.0711611845494016
0.021426272679783
0.0371997346632896
0.120263007542784
-0.524278618040444
0.0899369894430486
0.607087741735125
-0.117162547864148
-0.290294989251627
-0.377429725991384
-0.0197270433334324
-0.933852263246219
-0.302613821137912
-0.0150199180605766
0.195074548454069
0.409407673999328
0.0547839672710735
-0.569316867769646
0.00271247687032306
-0.315143476054441
0.0211066397917597
0.153422860962327
0.315435118838356
-0.328099901520923
-0.555976639305631
-0.230869011305189
-0.218761531771837
-0.0825065410758597
-0.384800686670973
-0.0437804041500532
0.00774660423771992
-0.355397543312537
-0.0338901782738527
0.140724010406351
0.191618832391375
-0.413003752183314
-0.667428027039553
-0.105674468575798
0.274136121007289
-0.517555190983612
-0.551418609660646
0.0365194141345815
0.35375751488923
-0.428619368537937
0.287803381677484
-0.776114964241301
-0.51674200927849
0.816001814956161
0.151016878743008
0.324548572435366
-0.0538858216089826
0.624682326627633
